1.093453592885425263e-01
1.559468238314918986e+00
1.295963593825949500e+00
-2.564882122944626697e-01
-4.312376041906467589e-02
8.621141979384358556e-02
-1.513529809597010223e+00
8.576920483440463039e-02
-2.872592596286211108e+00
-1.079043609828886363e-01
9.996020646919635544e-01
-5.351963460453922072e-02
5.223335898056975513e-01
4.343124424330936373e-01
7.122527873611717020e-02
-2.197760381375687272e-02
2.218008629317794966e+00
-2.846509634137019407e-01
1.879146565951064440e+00
-2.169097927999636077e+00
4.168117779916926113e-01
4.876929227693133778e-02
1.762389882783605533e+00
-2.375265423120961117e+00
-1.273660294018652550e+00
1.082371580183272064e+00
1.800789261737107405e-01
-1.824787817569827775e+00
1.250742224568456740e+00
-4.047231153635907908e-01
1.068077328252147407e+00
1.087024025656804893e+00
-6.309950459038385917e-01
-4.302174856766090016e-01
4.151695805440713261e-01
1.026551177593771624e-01
-1.657091345734108989e+00
-1.590194815162758513e+00
-8.254596580622307611e-01
5.026955296778297111e-01
5.447748560844243304e-01
-8.523701382584604469e-02
-2.388256968852998430e+00
2.141901944014180659e-01
6.980350944785530531e-01
-1.461151643281019263e-01
2.506619165872192578e-01
-5.673233732160378739e-01
-6.030129379372682896e-01
2.244823557858114868e-02
1.338436005498180092e+00
9.650450651020407722e-02
1.601157625475013946e+00
1.996281812987054538e+00
-2.712026260884264905e-01
6.768604054302953532e-01
8.591020331667326149e-01
-3.268730110625485685e-01
2.373217888693408273e-01
2.722248826261169374e-01
1.786400532166390720e+00
4.418928133179522155e-01
-8.500193628453560635e-01
1.444540920843463638e+00
-4.945721544159598637e-01
8.375596053438302269e-01
-1.019217180504556008e+00
-8.810340813397149473e-01
-1.359274229420370794e+00
1.878813249675110875e-01
-8.635799211263199826e-01
-6.492683402410376337e-02
9.743049194168826865e-01
4.807380378330481929e-01
-3.944399986209052855e-01
2.229892474252117118e+00
1.397654290469163563e+00
-9.541888251882809646e-01
-5.835462722680022640e-01
-1.216500009093274937e+00
-2.743441075180051425e-01
-4.157732314012355102e-01
-3.365485656652625890e-01
5.677452881131986873e-01
-7.528624160116696995e-01
2.425075193304097265e+00
-8.165537075315856264e-01
-1.493977093367125919e+00
-5.225750581406743978e-01
2.323850593882177851e+00
-1.791323320524609020e-01
1.230145031260348354e+00
-1.020713477887824905e-01
1.567907229351324538e+00
-1.983803194638910750e+00
1.246330370699922849e-02
9.170103452500233399e-01
1.130885782653849037e-01
-8.166377720166569931e-01
9.128575749723089050e-02
-1.690192519737266030e+00
8.452243244350718943e-01
-9.580476061126076415e-01
-6.103894200538706460e-01
3.879532685364492917e-01
4.113682520799634770e-03
1.177059130466780124e+00
-1.638410931933726555e+00
-1.561377907331122694e+00
9.549019416735494703e-01
9.353049263601381780e-01
-4.249235968541050235e-01
-1.780392682441364283e+00
-6.479735931510223201e-01
-1.212483014584018193e+00
6.111324373941255939e-01
-1.503049546571174400e+00
7.317100516472528904e-01
-1.966369782663063059e+00
-1.243436115908846729e+00
-2.181033864400909739e-01
-1.837588643390769549e-02
-6.615025302743868796e-01
5.052782066907067771e-01
8.661126867211668690e-02
-1.024811634450760955e+00
5.492203215804678518e-01
2.031741634006954678e-01
-3.950083047080601428e-01
1.101926631167831516e+00
1.195687608286098193e-02
-7.354336095831158771e-01
-1.160558959821978542e+00
-1.149568907487866110e+00
-1.035044615257549205e+00
2.214201395687308005e-01
8.263620108207158088e-01
6.323510079415690655e-01
-1.154349706867413561e+00
9.259513936600575201e-01
-1.658663510800051588e+00
-5.800218727720765077e-01
1.067155925544779560e+00
-5.229463793471162553e-02
2.076613580699821493e-01
6.688487199026442731e-01
-1.437746189516130535e+00
7.783771134860725249e-01
3.771256062377533746e-01
-8.479058773915693070e-01
3.108963299187416651e-01
2.368027650785952343e+00
1.928717568886024081e+00
-5.488020091003660908e-03
1.047596291145321157e+00
-1.141370251109013745e-01
5.680003180703860899e-01
1.411728289064516639e+00
2.504129524737699786e+00
-7.355323685237068476e-01
2.160133384073406604e-02
-1.528938889495617959e+00
3.708265986571635531e-01
2.131193976677071333e+00
2.166731311736491972e-01
-1.117240490885491599e+00
-1.067795621248707194e-01
2.122318013520610780e+00
-6.711240577478784219e-01
-7.484073338954424504e-01
4.526729840384085546e-01
-6.325071012687860997e-03
-1.066556388287646318e+00
1.188055062401637496e+00
5.904848582710358063e-01
5.398277682045344861e-01
1.921841114591794630e+00
9.890289302753972611e-02
-4.887766683889659125e-02
2.404533591212683064e-01
6.446920934244237955e-01
-2.825544829803665059e-01
-4.798829749142040080e-01
1.898256729638181650e-01
7.170097165037355724e-01
1.113673513613330224e+00
7.426098169650650060e-01
3.720294032173798726e-01
1.932126451230963049e+00
-5.480578066800618764e-01
-5.652789731852508881e-01
-1.031349879941408226e-01
5.920742596033945482e-02
-5.116177676385591511e-01
-1.234234306410458143e-01
-1.294812498361437303e+00
-5.052189080847907521e-01
-1.529217371818534010e+00
1.315976275857978717e+00
-5.039973150146225267e-01
-9.015968534295554226e-01
8.160262737498951147e-01
3.238521623432432772e+00
6.585332091926711096e-01
2.230199958271029959e-01
1.118774497856413364e+00
7.069008863381155416e-01
1.487859889403990721e+00
-3.400616635360040330e-01
2.145104909703023477e+00
1.870077658452258706e+00
2.124328193531425768e+00
-5.442503839391210629e-01
1.622231643961868086e-01
-1.358883674210730419e+00
1.058427613963899949e+00
-1.434391262251008214e+00
-1.678176278764574939e-02
8.862234546850199512e-01
4.764050830900648514e-01
-2.658803444156325746e-01
1.270015492498035803e+00
-1.019452777529286980e+00
5.017462264650975057e-02
1.206494685589017818e-01
-4.166210429054117981e-01
1.376171055082595185e+00
1.295128094023609844e+00
-2.830182332613494500e-01
-1.204775431624032667e+00
-7.487816313466465479e-01
1.304259816591933019e+00
3.258021053561698799e-01
-7.766902648754442362e-01
1.222263835511735036e-01
1.423747466791571714e+00
-5.083372860878934141e-01
1.184416311184578241e+00
-1.579977886480226301e+00
3.672100983694515097e-01
-5.779192023226087382e-01
6.097507792953873323e-02
9.018836627850976839e-01
1.063199874571407466e-01
-6.607617281313005186e-01
-3.905744050548121821e-02
2.939614253083714379e-01
-3.658136615543106651e-01
-1.351101448781409697e+00
1.186142714958642319e+00
1.161727368384479764e+00
6.399755233889473649e-01
-4.723594090919938648e-01
-3.916719275276458467e-01
-1.160998160542443314e+00
-2.438750111849485869e+00
-7.513590780852641426e-01
1.806878122402579001e-01
8.041046702290054471e-01
-2.203186833898357566e+00
-1.497516506883347587e+00
2.782486745518630150e-02
6.887264870354888879e-01
-5.810392560401188566e-01
-1.059703771813287787e+00
-9.658455621934319835e-01
2.595871179704801968e+00
1.934107544872886164e+00
-1.621863006572494270e-01
8.501549090245189566e-01
-2.511911614503094636e+00
-1.597739620276486638e+00
4.927820260294068500e-01
-3.043713256448483118e-01
6.038772709499268254e-01
1.834380252515924070e+00
-8.247603356332312841e-02
-5.154833862749305107e-01
-9.782732935373569805e-02
2.625467854141897428e-01
-8.645140684468398673e-01
-6.235111153405489270e-01
8.282644872213011933e-01
-1.523122678488969095e+00
7.326534372834013764e-01
1.562556058882680565e+00
4.021311966547662653e-01
-5.497480490418659160e-01
-1.487318596067564114e+00
1.857091452376595231e-01
-6.197557533026375465e-01
2.130519711052356602e+00
3.868384783662876525e-01
8.687584470625231425e-02
-4.375981159591781910e-01
7.988308190043366674e-02
-1.481979060599983411e+00
2.033162689703574610e+00
-1.768973499992147147e+00
-1.419062043928752126e-01
-1.375883946124236257e+00
1.306799077323312352e-01
1.422007275613900612e+00
2.709700679493485254e-01
6.669416548476263529e-01
9.118388521946910741e-01
-1.933331884257289524e+00
1.756600499562416817e-01
6.029067585470455626e-01
4.627725641459929373e-01
-5.916569264763542613e-01
-9.753905228214190259e-01
-4.621522251642717904e-01
9.768179837081941708e-02
1.703060498896898922e-01
-7.163249219818293989e-01
8.103047338826396828e-01
1.817751646272471877e+00
-9.676272028809534964e-01
-2.460111989158493273e-01
-8.614984448631991809e-02
-1.458950294675725123e+00
-1.316382864855478729e+00
1.201882386377408185e+00
-1.781753946548484846e+00
-1.387450081630114962e+00
2.139730652758210283e+00
-1.180683859687328807e+00
-2.200878601333057460e+00
-2.634673848994274703e+00
-4.522931721472428501e-01
-8.137287553250676098e-01
-2.086830497903169768e+00
-2.202763299607114478e-01
1.954957004812739318e-02
5.594106138777369397e-01
-6.432680758103870300e-01
-2.459620027898931083e-01
7.960200090558524622e-01
-4.253980312620386783e-01
6.550472640561283422e-02
3.531684128787329069e-01
-8.528020414741037669e-01
-6.668446323209742399e-01
-5.384012618662149530e-01
-5.735398571357843700e-01
5.432500412233893794e-01
8.165115140911066369e-03
4.555368010428597625e-01
-5.908208651650943555e-01
-5.371309874397452999e-01
-1.012269972021634157e+00
-1.382119711952189522e+00
-8.442997641555342048e-01
-4.894030538459306218e-02
1.124886068616496315e+00
-2.181229236992059395e-01
3.982664095267357540e-01
-7.444260175129664425e-01
2.635774924099062444e-01
-5.730063240966843940e-01
7.077215728013508400e-01
1.037600283705251147e+00
-1.127906292165790525e+00
1.215610034688324514e+00
-4.526137795230345540e-01
1.165327803543709795e+00
2.885824162986211361e-01
-1.300351301618728028e+00
2.385094206354615998e-01
6.593609075307790279e-01
1.663281195906116464e-02
1.362654255717931640e-01
-4.647309785039880903e-01
-5.966235881912066441e-01
-1.539653188305879217e-01
1.156527189790274468e+00
1.063061737744589674e+00
-9.646051214408965513e-02
1.988319762878954622e+00
-1.108507161782573830e-01
-3.704535731204952054e-01
3.899049229161013486e-01
-3.369406824667564582e-01
1.108841931728926866e+00
7.953383267394777967e-01
4.453194137387388452e-01
-6.783777020059973406e-01
6.711901889421541256e-02
6.924180440562316408e-02
-7.747154731097670721e-01
-2.536554282705748786e+00
-1.908023455503403687e+00
1.944090961117821204e+00
4.723049533209000561e-01
6.509523325430780494e-01
-3.870355349383327592e-01
-1.262193518572514384e+00
-8.056989910870475391e-02
-3.141521770421442095e-01
2.487490312906520118e-01
4.212804491449925748e-01
-1.161382945297928071e+00
5.918720920298422561e-01
8.131137885952656463e-02
8.831069743506586578e-02
1.638831671698621983e+00
6.378759596768581730e-01
3.024328661606549562e-01
-6.949293728916350332e-01
-5.066746885754765950e-01
-1.604462101124778606e+00
3.196983603566555532e-01
-1.826361458325414411e+00
-1.591431937699715471e+00
3.335548837939026789e+00
4.098200029202599126e-02
8.540083458017666551e-01
1.241744813643613554e+00
1.283701527539360399e+00
1.164721267693944046e-01
-1.404587923795176385e+00
-8.386708190940213026e-01
4.682638702345701120e-01
-8.369155682226465665e-01
2.149417864650409626e+00
7.160249340326857448e-01
-6.623179783111934338e-01
1.375819376029578711e+00
1.175604999743582457e+00
1.587790975035412444e-01
-2.136026411098436384e+00
-1.538182891220068460e-01
1.305465190992677882e-01
1.547827026184773191e-01
-7.151464590556626533e-01
-1.552158154494524656e+00
-1.282218044402794410e+00
-5.559191066697940498e-01
-9.673672935271746542e-01
1.206913142422961105e+00
-1.607146783309222338e-01
8.828470597848266932e-01
9.253246854952660305e-01
-5.112690732774645141e-01
-2.183649520154408441e-01
-9.976013545273959560e-02
2.555978894799260548e+00
3.708813702135528856e-01
-5.025916662529497092e-01
-1.595507287428739041e+00
-5.500467576425888128e-01
1.124966647166498079e+00
1.130333335999665678e+00
-3.075603550316821644e-01
1.807414449565718506e+00
1.155220448924333815e-01
2.255094969395040061e-01
-4.941362894207900203e-01
-6.174479971410636869e-01
-2.314768331790688638e-01
-1.108068516052341107e-01
5.823714815813432200e-01
-8.007748506351205497e-01
1.771529716214895300e+00
1.599813245564649877e+00
-9.004101674298824465e-01
-5.500516304685105357e-02
-3.119488381310828173e-01
-1.582348942088522836e+00
1.796040729796365643e+00
2.039639871344802458e-01
1.139232168493077291e+00
5.648623561379028518e-02
-1.203427148386399193e+00
-2.697983191407875014e-01
7.297814461440996769e-01
-3.002532978307858591e-01
-1.508107334473770544e-01
8.342594281541927392e-01
1.975370395787786060e-01
-3.110445154553478919e-01
-9.415053219163777021e-01
-7.610089607476765439e-01
-1.243413151091278923e+00
2.518046765645264862e-01
-4.471284238894423363e-02
4.187262865740405959e-01
-1.013907042021735982e+00
-5.262159611984844609e-01
-5.805751625906661051e-01
-8.814251302123330412e-01
-8.496279510808727453e-01
5.136559168933479969e-01
8.736343406343846651e-02
-8.132052449676907546e-01
7.938471025838841344e-01
1.750132244010396410e-01
2.057030115736033227e-01
-7.154858409125982588e-01
-6.639343135510508698e-02
9.564897370606454396e-01
-1.249573952847925273e+00
-2.611886850760152257e+00
-1.369605706057090699e-01
-4.309494385388067811e-02
-7.517642486148187198e-01
3.563856928669618673e-01
-1.169296714600190690e+00
4.106112293780141975e-01
4.575251069623857414e-01
8.698399334042494768e-01
2.520556131835926736e-02
7.843157598902908423e-02
-2.210446507889268102e-04
-7.486091371067335118e-03
1.564921638408875160e-01
-8.075115993854224683e-02
-9.670686360189141295e-01
8.912440621825061804e-01
9.507514089144264435e-01
4.997372725164980073e-02
-6.200838897331271138e-01
-4.126332000477869189e-01
-7.143043874597532206e-02
9.543401122374246537e-01
3.471531543525487873e-01
4.060425963744381250e-01
1.341274449258520907e+00
-5.201395732890347068e-01
4.929201481512466843e-01
2.736526567777823882e-01
7.311410848112653849e-01
-1.107534700258448468e-01
-3.353075411104480819e-01
7.392766607986432648e-02
2.168181012080395487e+00
9.282796447445751387e-01
1.164818708336107678e+00
-4.894966394477678340e-01
7.588354283032576753e-01
-1.274953424420588899e+00
1.109271052087471565e+00
7.172317310486216180e-02
5.900063078698066787e-01
2.334326081942329267e+00
-8.611349640274605644e-02
8.458251472332611876e-01
1.177780179506250358e+00
1.470705430105959388e-01
2.424009939014139192e+00
2.095107257083170249e-01
8.592271259783477999e-02
-6.794713355443350311e-01
-2.107710446188105102e+00
9.635932073856455782e-01
1.704095867706173495e+00
9.396064629036918747e-01
1.172843567770957884e+00
-1.219120244514815488e+00
-5.168460196755015890e-01
6.880278499787682023e-01
6.289666255019004115e-01
3.745431636453485646e-01
-3.438363690158712238e-01
-1.500310130745715620e+00
-1.752533366700924355e-01
1.223273398365109843e+00
-9.558802426207248237e-02
3.344705102423621290e-01
1.103893324974705603e+00
-2.049442130942190632e-01
-1.131142970565092387e+00
-4.972081517428355024e-01
1.525701352387615617e-01
-5.460396627365080580e-01
6.325198694689365686e-01
-6.249943313394076272e-01
1.203631848805319038e+00
6.004085256974732443e-02
1.201181570672337495e-01
5.864106441636102174e-01
-6.167038322390010485e-01
-6.235635011475225697e-01
-9.797771610758144734e-01
8.318318293364316274e-01
-1.116656953179309963e-01
-8.367257211378965609e-01
6.813499867882649719e-01
-1.391094918703021044e+00
-4.273814461243315987e-01
1.235434851761084918e+00
4.635337779385148016e-01
5.085816786610356521e-01
-6.518469803900913684e-01
1.170464057935722141e-01
4.011610542009315106e-01
-6.354478525751151574e-01
-3.157165560453489839e-01
1.821853187650511297e+00
6.992662688832510520e-01
-7.389539468324195504e-01
-9.833403462474311629e-01
5.935587449204916544e-01
-4.865397200484927742e-01
6.195047059203228068e-01
-8.124200221707766900e-01
-1.350243001654030328e+00
8.992112543964404514e-01
3.292509553990224935e-01
-2.181926483198555200e+00
-1.262863691699477764e+00
-1.090071823565816667e+00
-7.771567492197911653e-01
-5.737849428591449419e-01
-1.178542974317905001e+00
-5.163233237646832618e-01
9.411127668365546484e-01
1.294331261867876171e+00
2.521602003961734839e-01
6.282255503535177921e-01
-4.474578977101759114e-01
1.124026762013715430e+00
8.681292620491147805e-01
1.232853672416093227e+00
1.916655262566063223e-01
5.240284056625874563e-03
8.109475596609333481e-01
7.055209166965950573e-02
-8.604187700524941473e-02
6.257919436561857340e-01
-1.420093426407954551e-01
-9.171449680336191124e-01
-7.380744828749401520e-01
2.318947168101208156e+00
-2.002414977964829534e-02
-1.036736565553854073e-01
8.906692239243914067e-01
-6.425942029144069423e-01
7.836859190526378471e-01
-9.574167179846276854e-01
-3.331304973771235245e-01
-8.136143433250878632e-01
2.849757520495767651e-02
-3.855031352834615288e-01
-1.706712971096410625e+00
-1.169420699177352363e+00
4.807201864873618669e-01
-2.399688387537011636e+00
-4.233523441754512562e-01
-3.243765148935164877e-01
-7.918981653431825807e-01
2.719615106400201654e+00
1.634705782314683331e+00
1.287262338393427408e+00
7.177053671922162259e-01
9.529576279365802316e-01
1.221873010051219011e-01
-2.279926076143710567e+00
-1.730053668275525425e+00
1.440651548525483161e+00
-9.819456172347552636e-01
2.636250264198581217e+00
1.739505525513560968e+00
3.790127703567179318e-01
-3.800621755566870319e-01
2.256284701598683107e+00
1.894587810537924355e-01
-4.430953629404453253e-01
-1.673644442228686913e+00
-8.690110963899791985e-01
-1.972950132188947769e+00
-1.518857180371633031e-01
1.961653364001242628e-01
2.340102878214143534e+00
5.454815627443149184e-01
2.215796963424050414e+00
8.137269285910765371e-01
1.455068366108763334e+00
6.943264867072860280e-01
1.173093664418270343e+00
2.773381692528477105e-01
2.293855154660854545e+00
-1.146808568939250872e+00
-1.757806482595320796e+00
9.071846808287388209e-01
1.506741810646396118e+00
1.090549057712817405e+00
1.395900342571219088e+00
-1.335312522598922358e-01
-1.854573607743652541e-01
5.433108555344315915e-01
4.838982256902919499e-01
6.089322012154667618e-01
-1.741394079233341330e+00
-1.204009619117719643e+00
-9.619095004856305087e-01
9.685550147224504525e-02
-7.571927293375499968e-01
2.622338430432532563e-01
-3.123186218688762603e-02
-1.294747947678267952e+00
4.304661643471328070e-01
2.498986173156274304e-02
1.771913455907209611e+00
-2.786912014862100717e-01
1.221076736503771576e+00
1.985454995948540802e+00
-2.158359747209713242e-01
-5.656597606744881990e-01
2.258222539229709280e+00
-9.795997904955542346e-01
-6.802859129323679532e-01
-1.352056971306515365e+00
-4.497530110737057996e-01
1.136727854854736819e+00
-5.239208896762775902e-01
7.194465880549646419e-01
8.680707310736028859e-01
2.067284987561898379e+00
7.892585308704662232e-04
-2.285170756341271814e-01
5.307403290551276909e-01
2.330691886711322991e-01
2.447517021405513638e-01
1.356736766541492833e-01
-6.471087330679636818e-01
-8.990166073151256709e-01
-1.870101101616166162e-01
1.112865334093673386e+00
1.027570849977573531e+00
-5.186399481827146107e-02
-4.085834488583486301e-01
1.105286160319970401e+00
-8.967014758861148183e-01
-1.182235749987441853e+00
-5.105787351906481142e-01
-1.652297362065135444e-01
8.985079860005590335e-01
-8.746560956403087728e-01
-3.077413946050576055e+00
-7.769919218711693887e-01
-1.203710423657966960e-01
-2.101967971631606980e-01
-6.355919848544305806e-01
6.774834913563485550e-01
2.860641634359277763e-01
-6.080659041769173045e-01
1.148610974943255147e+00
-3.406339677374090047e-01
-5.824040498056612947e-01
1.118064428798663634e+00
1.064287576859644369e-01
7.639470851081007208e-01
5.585274779857780231e-02
2.191285727415068219e-01
4.218728347092959852e-01
-1.234897278670740395e+00
-3.246154683059622181e-01
4.355614027205772509e-01
5.793941652779424079e-01
-1.073308570946677198e+00
5.738342969993748266e-01
-3.166175884293999654e-01
8.691981904150876126e-01
-1.065858838549734289e+00
5.181150191506461722e-01
-1.979133495146098154e+00
-3.712326445578137957e-01
-3.620954230231702292e-02
-2.761655575456971046e-01
-3.690172742742127698e-01
-1.206152059881910210e+00
-9.172829683213769014e-01
-1.122360639104027502e+00
-4.936160498497139670e-01
-2.034432438132656451e-01
-5.909862685255030668e-01
2.592672576422204167e-01
3.683613762723395579e-01
9.768229749646136773e-01
-5.413345304137585634e-01
-1.292949796268667573e+00
1.019019045095268750e+00
-7.051238211456164473e-01
-8.524800452312178978e-01
-5.574460175690965080e-01
3.371147713692151937e-02
-1.989066605721283576e-01
1.337784484084399317e+00
-5.576612892548032940e-02
1.267857689679958044e+00
1.745882046455248249e-01
2.387227519472077952e-01
1.509691221751820356e+00
-9.198915573274224489e-01
6.522669663150897357e-01
1.008792493605252583e+00
-1.833472744845425495e-01
-2.014900066899221187e+00
1.893244112799242318e+00
-1.236102587914176487e+00
-3.899953608515351888e-01
-6.064487435947600591e-02
2.247803850070148324e-01
1.158923628684997542e+00
3.164440298983744460e-01
4.132026007988290339e-01
-9.104711325645023501e-02
-1.825030861893491563e-01
7.349894237383517437e-01
-3.876294732805363741e-01
-4.302075622082389694e-01
4.154957076273124161e-01
-1.457656235434326542e+00
-1.330901332194873277e+00
-1.278352749479218620e+00
-3.068754541532916491e-01
6.524312004037402524e-01
2.253087274913678217e-01
-9.151426752531005571e-02
3.702721905743282527e-01
1.086436701339478852e-02
-7.036058405536026183e-02
-1.249509620443211011e-01
5.901415483162104625e-01
1.197910484182304280e+00
-5.366611414444356631e-01
-2.144782279758505439e+00
4.088954972601355764e-01
2.058701987818644330e+00
2.061960390207459248e+00
1.307764436802781649e+00
1.583050845204580226e-01
-8.348798512886339562e-01
-5.645293006499615407e-01
1.502395205756276608e+00
5.578958546273331542e-01
-4.893455271159425912e-01
-4.727785301708864463e-01
-4.403983319058629720e-01
-4.133081262360838171e-01
-4.098076459809667227e-02
5.507944444973587039e-01
-1.438081626102018618e+00
-5.015751411715848596e-01
8.627324521534512902e-01
4.294993557939308926e-01
-2.614298241917110688e-01
2.085686450147159920e+00
-1.245204254530033741e-03
-1.594492480729245154e-01
7.973664394881748718e-01
1.730126065678089020e+00
-8.145474744815561774e-01
-1.345261574915659120e+00
-6.752138538470689455e-02
5.818561595828100064e-01
-7.241645020791190879e-01
2.222108809813387875e+00
2.456877342742147807e-01
3.175180046846396986e-01
-3.712114602880942638e-01
1.675642724530374272e-01
-3.692574800602367868e-01
-1.472024875657649945e+00
2.007425704781369558e-01
6.280903769850629814e-01
9.737724546488778499e-01
8.282745511562139562e-01
-1.096691403792948542e-02
-2.993718362844508096e+00
4.994083431892480940e-01
-1.320911056975051068e+00
-1.304944560146061860e-01
-1.236085546237807309e+00
-2.585310982674156599e-01
-9.980533901868339219e-01
-8.093035115559975567e-01
1.531433885395344197e+00
5.183417147633198052e-01
2.592153576780601654e+00
7.227808094117557092e-01
1.251443370299494928e+00
-1.948940720261169712e+00
-1.130663683952818133e+00
4.175360206560302379e-01
-1.164016643631034104e-01
1.525088105936767413e-01
1.097813161160550832e+00
-5.270279858109907511e-01
-1.166107492621247133e+00
5.754139961165162243e-01
-4.651853414580495172e-01
9.636436956659910624e-01
4.850791540560777104e-01
-1.856546328056052353e-01
-1.148864941137977214e+00
-9.066957882582550587e-02
-5.139101038584794612e-01
7.308237861730791929e-01
-6.621396433232960010e-01
1.571665965513789232e+00
-2.305107118856095094e-01
-1.545759360833307117e+00
5.340298855590228655e-01
3.770980355434783715e-01
-1.947492715785262007e-01
-2.158747561137816517e-01
-4.473134838974184291e-01
-7.873181397861456210e-01
6.047184131755930503e-01
4.464345515408070231e-01
-1.199537073956422839e+00
4.961555670730626866e-01
-5.353972837531285611e-01
5.388367150994447519e-01
5.562149922354173714e-01
7.383811408461602444e-01
-1.219569659962407737e+00
4.740216550728884592e-01
-2.190762051400814148e+00
1.403214729238282832e+00
-2.418884616862869777e-02
8.195689136508684802e-01
1.633186106227207113e-01
-1.150059394680683911e-01
-8.880094819510817583e-01
2.120138875048183991e+00
4.322090052783273961e-01
-2.999085959002316393e-02
8.696496612800608261e-01
-1.544285100482248430e+00
-1.879078575259401362e-01
3.427930472985475929e-01
1.547285143406957331e-01
-8.165025288596777786e-01
7.413730955780571952e-01
3.445047832562525003e-01
1.659602680144965259e+00
1.191815597264838988e+00
-1.297192241275688218e+00
-9.593639536789319022e-01
3.008771787911971307e-01
-1.355769628103953073e+00
1.783628941651811850e+00
2.576931818543216068e-01
7.248381613297960602e-01
2.292155894832327068e+00
-5.541188778186610930e-01
9.868887581605433335e-01
-6.441567082966460911e-02
1.472839772028437633e+00
-1.032386139458241203e+00
-7.826423229279886318e-01
-3.661129576936961172e-01
-4.719714139141018006e-01
-1.844958102584222548e+00
8.604218215294321404e-01
6.480266632917467406e-01
1.878405583357871445e+00
-1.162507373055059245e+00
-7.898249623730303481e-01
-1.656102816940659750e+00
-8.397544263680055687e-01
-1.987045561114125780e+00
8.174837528199171977e-02
3.605121576870858741e-02
1.396829191102248346e+00
5.877624839380884980e-01
8.625070348626779904e-01
-7.062021502692175101e-01
1.024694804167110451e+00
1.062968745929614878e+00
1.130114483501044459e-01
-1.272589808273110856e+00
-1.212938323734211732e+00
1.133207583227746618e+00
-5.524496515799686147e-01
1.375542796262441581e+00
5.087059359645321743e-01
8.199594792415830780e-01
-1.633761303825009004e-01
1.250164979689227129e+00
-7.816505338475889797e-01
1.451121368747346319e+00
-2.436155510104069499e+00
-4.988408264207918608e-01
1.046989244697929533e-01
-1.146592957939769342e+00
-1.190549264628009807e+00
2.599862721867830517e-01
1.444061786628670685e+00
3.838100259126785430e-01
9.017455697438430118e-01
7.881549705110740822e-01
1.026989809652486318e+00
-7.985592587878178605e-01
7.242020622859912660e-01
-1.531106140245862335e+00
