1.105260505186783426e+00
-3.985036559080294416e-01
1.109053057767319439e+00
-6.509428445899760884e-01
-5.815802560591931680e-02
-6.889867483599723119e-01
-5.383761372504932696e-01
2.121663094404078465e-01
1.609698563545360894e+00
-2.523064089568191615e-01
-1.784193776514244600e-01
7.445969202584041824e-01
5.029741523178831164e-01
1.352330269571005994e-01
7.723675122048462294e-01
-1.267631503785772162e+00
2.328508348847957432e+00
1.741876835234259513e+00
4.531693529410156518e-02
-1.825630424266199703e-01
-5.246539717447479267e-02
-8.054012260012179958e-01
1.468127482198855249e+00
-1.169777209316750888e+00
6.011527628583940297e-01
-2.936138667626633433e-02
3.992302200646359323e-01
1.358851643357506855e+00
-8.063538164442529688e-01
-6.487342443267044567e-01
5.275618654248155348e-01
6.348748088602808037e-01
1.296437891803609022e-01
2.344529729465310020e+00
-4.246958051001958889e-02
-1.006075987873265687e+00
1.989108375389169181e-01
1.082392892197444612e+00
2.507218831777695001e-01
-5.865381774350075794e-01
-9.830700690738970737e-02
7.402775554905201005e-01
1.299986690838958792e+00
1.236484494869924511e+00
6.658126722974403444e-01
-2.536286764051093989e+00
-6.279784391123011122e-01
-1.273605604398610369e+00
-6.853143151349108120e-01
1.384639274676686238e+00
1.591270159948575902e+00
1.468568478892813278e+00
1.594154961009733862e+00
6.486766209274228423e-01
-1.056951391613687313e-01
-1.116029897439034135e+00
-7.653030135251761568e-01
-5.185676089972832692e-01
7.453834571766853045e-01
-7.163050473442523769e-01
1.069150756855395817e-01
-7.826467426380471215e-01
4.082269153472516399e-01
-1.981083469985350093e-02
-1.618049534418782409e+00
9.969388588940088225e-02
6.543307819254631230e-01
3.335862164990938683e-01
8.237952906260888053e-01
-2.153817320179335082e-01
-8.409336647539613629e-01
3.127477874776118938e-01
-2.606764524827736018e+00
4.656037347241187563e-01
1.667652731912562247e+00
4.710079517874502519e-01
-1.483263005558836667e-01
3.538894564649994745e-01
4.619658673921860359e-01
-5.775615312359920761e-01
-1.596212367103311491e+00
-1.231270180742733089e+00
2.892379977967853844e-01
2.932235186050866083e-01
-1.186371713956311913e+00
4.583009313606530299e-01
-6.771648512776454742e-01
5.724882235594462854e-01
-3.040749790871429825e-01
-2.645135358019608862e+00
-9.736584978209995578e-01
-2.320027059116676685e-02
1.985111343609618606e+00
2.124903461144828309e+00
4.480823120408305993e-02
7.062923154279201476e-01
-1.096360389578663885e-01
-2.402575477601190945e-01
-1.343063216511244662e-01
-1.854503095720927419e+00
7.265662184504990684e-01
-5.556054964049713663e-01
-3.128686045837439700e+00
-7.935079891223033588e-01
-5.244713549098383165e-01
7.038210499435882950e-01
-7.523841732972157414e-01
6.230542939984997503e-02
-1.467128137355039996e+00
-1.064505754198183524e-01
-7.706811745393681301e-01
1.315835844714598801e+00
3.620918698937997116e-01
6.120616533349109399e-03
2.993559122475694667e-02
8.278385818850715339e-01
-3.057563376419500378e-01
-7.239387659583409462e-01
-3.128573609938425371e-01
1.117786861475264848e+00
7.778832192457408867e-01
-3.891033824862248913e-01
5.059969591408061129e-01
5.539050128063812556e-02
-1.698436537208963121e-02
7.108485077557448462e-02
9.801581295293514129e-02
1.643831521195502632e-01
4.232508420677911221e-01
2.303884646428919492e-01
-5.940277164731081472e-01
-1.252736138283467859e+00
1.977765959521662120e+00
1.394703078211967817e+00
9.251076256039569845e-01
-1.535467206847172111e-02
-1.575128151054445147e-01
-1.273675075612263341e-01
6.015231411868557920e-01
6.152197697299664064e-02
3.030246828274466009e-01
-2.768142989108376417e-01
-1.819496135779178347e-01
-3.875433804193944010e-01
1.330965434187080243e+00
1.996564579478006807e-01
1.953631693968628680e+00
2.217939218155509540e+00
1.022674884216010716e+00
5.974704678429703097e-01
-9.280962455969883340e-01
1.773594156995984994e+00
-4.993116337829195950e-01
-4.252957270268308831e-01
6.993439739748708028e-01
-4.413661498241727710e-01
-6.799292372653762406e-01
2.238032124086989594e+00
1.068726072443607178e+00
1.823308371332754141e-01
-2.013418122677398392e-01
1.760011599027776263e+00
6.308837946541753228e-01
-6.789512483259176889e-01
1.472201417012454772e-01
9.220865416726372610e-01
1.641866395667114897e+00
-1.181550485400583161e+00
8.915288056106018821e-02
-1.156753867736443953e+00
-5.888279204706976522e-01
8.971884958898631787e-03
-1.102081412007642092e+00
-9.787194263235672320e-01
8.280139293944643875e-01
-1.474067831265930328e+00
7.898819624459835209e-02
1.132074250932781467e+00
-1.281577316202467065e+00
1.583051471352015627e+00
1.827362040129634768e-01
-1.369108644946276820e+00
4.720720481896420462e-01
1.231653572084836057e+00
4.635514351478630668e-01
-7.333628250125546755e-01
1.422403219935906682e+00
3.527611201117208384e-01
4.941758444985150933e-01
-2.506128915862166351e-01
4.834038647070992289e-01
-1.191223717902367474e+00
3.181133020611769946e-01
-1.057175671962079067e+00
-3.108972415714407744e-01
7.536053800246139689e-02
2.396631018684239223e+00
-5.662364275056575025e-01
1.422763975069154307e+00
-8.135647026353649558e-01
-2.085415026619408696e+00
-3.125132889737888275e-01
-4.950026993015899657e-01
-3.279310765937986510e-02
-5.274126438037946007e-01
-4.970561539895780312e-01
-1.302954981296631787e-01
-1.563535105659094315e-01
-2.235663993589319443e+00
2.426526237324798940e-01
-3.926427789957954162e-01
-1.684849824997140422e+00
1.599932670539315094e+00
-2.436932064577905788e+00
1.820177393904889529e+00
2.148806319159497935e+00
9.518466416809323594e-01
4.775058341894940911e-02
1.386804188584773501e+00
6.626945248965605550e-01
-5.861459554358016133e-01
-2.627981143044529899e-01
-9.762963407367876156e-01
6.651037084967000856e-01
-3.063072119859054920e-01
-6.217820336994750452e-01
1.023904634227074339e+00
-1.303234641144880024e-01
-7.037722623950123380e-01
2.432566435635907354e+00
-1.577633790879373610e+00
3.193592684333447784e-01
1.836482159279058946e-01
9.152565916715635352e-02
5.080267408849135080e-01
1.989173218214147720e+00
1.584349919756371738e+00
-1.832565126236858355e-01
6.763744405224143552e-01
-3.557963381126241775e-02
-8.029659191706719490e-01
7.074268119093571894e-01
1.605323647089883510e+00
1.842533585407237495e-01
6.659244944094404317e-02
-1.923373036527465940e+00
3.451737994566522749e-01
-3.251503837034516731e-01
-5.129289585380313321e-01
-7.519327256024189721e-01
9.366832014711278243e-01
-7.892414080749445837e-01
4.866347868899918439e-01
4.231072018651962918e-02
1.436275645892820529e+00
-2.229004670434138191e+00
1.613449509440679552e+00
-3.444231428441286991e-02
1.050265718974671580e+00
1.095578870856654286e+00
3.598653346983303192e-01
1.912051240323086043e+00
6.644093163976401428e-02
-1.805876498766197380e-01
-1.025204968659030103e+00
-6.543383556085476949e-01
-2.631133279972971278e-02
-8.476954531407161486e-01
-9.533097149614923327e-02
1.477241223987030505e+00
9.680554544767561165e-01
-3.043436935584350467e-01
-5.801782905599139895e-01
-7.436263880708338103e-01
2.492072833093102457e-01
-1.592774688973843444e+00
5.146596209399471045e-01
1.417159305313663964e+00
-1.006859532791149370e+00
4.175817270407305437e-01
-9.537478035343383009e-01
-1.246606595646831073e+00
5.169164495364356737e-01
1.716038195483307049e+00
6.106949450664325152e-01
1.669228789275032376e-01
8.582345431111714218e-01
-7.089792082154503516e-01
-3.517061500575565519e-02
-4.313948956183693006e-01
1.731992968815208034e+00
7.622145071381710713e-01
7.622530620738621199e-01
-4.093777578513674298e-01
8.331827500252234620e-01
-9.244935287487705544e-01
-1.394288280491084109e+00
6.616787413630618175e-01
-5.313740506774795869e-02
1.164560902445825219e+00
2.155003629186058867e-01
7.547218168695530860e-01
1.358771001677622214e-01
9.474213745663107034e-01
-9.509905467510626487e-01
-1.539495188196046971e-01
6.735496552231753364e-01
-1.678584168921263942e+00
-3.240298190108323872e+00
-7.021202741012561033e-01
-2.620564197618487912e-01
4.998527903881535006e-01
-1.785256815680435372e+00
-1.420872725756848975e+00
-4.082016705256749645e-01
-1.877085661262876404e-01
-3.999108370803828860e-01
-2.221500559806886266e-01
-1.530132599115044068e+00
-1.556609936781215286e-01
8.399023489845207635e-01
1.052697181631320866e+00
-1.763380178925103015e-01
1.912096243872668522e-02
1.574743696042921970e+00
-1.386385832335240709e+00
-1.731529134504741080e-02
1.099264755292433726e+00
-3.143582275562143424e-01
2.703353141813123472e-01
3.245020801272588407e-01
-1.024193269023122299e-01
1.020068048290254797e-01
6.106103137349895571e-02
5.504436563567706164e-01
-4.992355827326053208e-01
1.977856835808299851e-01
8.035676742211962376e-01
1.281292101843392706e+00
1.267548278165153253e+00
1.507377660945629083e-01
-1.127610932674800059e+00
-6.635655587648514597e-01
-1.268221344635481196e-01
1.529330903162383404e+00
9.276316475516082072e-01
-7.321496832945726396e-01
-6.970046057979369936e-01
1.472264881565842565e+00
5.038127615986002228e-01
-1.282678686632231280e+00
1.320271074446481396e+00
-6.500629596763081164e-01
1.897366678834627285e+00
-7.779575579034631039e-01
7.370035644795067675e-01
-1.276010553260436664e+00
1.626357651370111679e+00
-1.830211541505669393e-01
-1.984244459804298755e+00
3.776139160129599603e-01
1.259322135064552040e+00
-1.668264528170769090e+00
1.733397482482420981e+00
1.158100598679312476e+00
-1.144040491091711687e+00
1.277997582117448738e+00
9.788482122697347299e-01
-1.137265318955456239e+00
1.040152316350653749e-01
-3.291662272892144081e-01
-5.207367303520159529e-01
1.915415734195647701e+00
7.794334282256761837e-01
9.430846589172927619e-01
1.003960578720580310e+00
-9.474933374367003891e-01
-1.709973616530034768e+00
-2.801755403369978192e-01
-1.205430222553814268e+00
-3.697883354014473989e-01
-1.733617248774062813e-01
1.489543724463174401e+00
-7.698555237039744759e-01
-7.308384068165081626e-02
1.015453494215934560e+00
-2.924651438569799144e-01
3.006493258947414704e-01
1.026569402294536859e+00
-5.192497910898449254e-01
-1.304342755418999023e+00
-1.517885664594825101e+00
-4.212564798074733274e-01
2.068272532001792730e+00
6.282317633928951803e-03
1.088984113074452420e+00
-2.883821995227767720e-01
7.623803446884702684e-01
-4.013069960305272743e-01
-1.559244757089714550e+00
7.791503331079308037e-01
9.785007841146146079e-01
-8.080149193127290630e-01
-5.682872069717341823e-01
1.751541113162763175e+00
4.732978813883546021e-01
-5.512723934287880323e-02
1.158167909307013410e+00
8.290904361129937117e-01
9.806150020486127383e-01
2.788888461918935524e-02
3.517984759482085111e-01
4.484238199193165131e-01
-1.203928922681795077e-01
7.637448403594901958e-01
-7.872299383757574986e-01
-2.125974384423669206e-02
-6.126207027366974422e-01
-2.630474588021369797e-01
-3.996591937284568741e-01
3.350899451853070476e-01
7.685964783495976560e-01
-1.238890853236799261e+00
-8.359262451366308300e-01
3.539572667188282257e-02
2.336975717509297557e+00
-4.597206883710205916e-01
5.512617818218709109e-01
-3.757849730464985494e-01
-9.102589989161520290e-01
-3.025209116527894371e-01
-1.976479416629507990e-01
6.317166107848547207e-02
4.737148969882049032e-01
8.310783689646968897e-01
-3.482649141810697374e-02
-3.813774507829663096e-01
-1.650851046743559536e+00
-4.428919585353970345e-01
-2.117304760094688709e-01
1.062851085653054639e+00
-9.056349292962145858e-02
4.398126548993679941e-01
1.295353875332682758e+00
6.699392406674021805e-01
4.871009923077054826e-01
-1.974049628923324473e-01
1.189278828854024687e-02
1.716596304591726740e+00
8.221098485458316896e-01
-9.085171202175681970e-02
-2.788934714471111853e-01
-3.514914990637547313e-03
1.701991193644626921e-01
-2.854467014174551509e-01
2.126117590523880274e+00
5.084738384137715839e-01
-8.058715709804095129e-01
1.670101706492564675e-01
7.599741599428960770e-02
-3.023334830064023371e-01
7.909579341109986006e-02
-1.055422450773409793e+00
1.624008533660028730e+00
2.317493938196879266e-01
4.173481451070568116e-02
2.873309369582068284e-01
-7.836422062348764594e-01
1.111194747700456009e+00
-5.401316962750489781e-01
2.105906667414724487e-01
2.339249806797614323e-02
-2.480214735861592246e+00
1.381217312300905720e+00
1.577484310495190556e+00
8.310076025578756465e-01
1.833239107595635020e-01
-1.086185549047054222e+00
8.084317307997819502e-02
3.044362149202446410e-01
8.984248646841422881e-01
2.656110226596987367e+00
-7.587698881592668254e-01
7.345803162882578174e-01
6.169901058398353788e-01
-7.526583923195402648e-02
1.584306869891024538e+00
-3.060693390085763785e-02
2.436130276136817319e+00
2.533179207454734794e+00
-1.813897668866756741e+00
-5.792752668719652887e-01
-1.043288545218736818e+00
-7.495013929807908815e-01
3.735820410635646294e-01
2.107683034514596709e+00
3.844530630175466146e-01
-1.043077866225394335e+00
-1.576818419988900155e+00
4.265502090439563521e-01
-9.053693786991646730e-01
-2.200077852637976061e-01
7.469314628546418477e-01
1.781159848352694558e-02
-1.529067811958221501e+00
7.301155931163524349e-01
-6.646980815348821903e-01
7.732605957416490705e-01
-7.801938895446935973e-01
-6.407400775957966879e-03
-8.013383511827305850e-02
-5.442923654757483298e-01
-5.505594743921533585e-01
-2.577403398011610808e-02
1.536783508986362845e+00
8.405732439015042301e-01
4.624766603175204382e-01
5.469525066023367410e-01
7.350442778719260550e-01
-8.821027661698164213e-01
-1.970949376416486931e+00
-1.645670214126635278e+00
-1.046776206953534016e+00
-1.282101316178991146e+00
-6.959784957422457952e-01
-8.646474896827617274e-01
7.386930508043151322e-01
1.513538394287557320e+00
6.074248554366241670e-01
-1.042109456750949459e+00
-9.907797817704051546e-01
8.746941791692594004e-01
-3.933027312869173953e-01
6.170848132377468841e-03
1.307260391936392985e+00
-3.821958299535392622e-02
7.543904879462000057e-01
7.703414821557430514e-01
1.899045144847986977e-01
-2.606006074973470921e-01
1.673500160167021855e+00
1.239569926803467004e+00
2.061481262135452242e-01
1.580378386509143196e+00
-1.976819868735145258e+00
-2.330807278136449168e-01
-5.779831516510104406e-01
2.992010533257739024e-01
3.385544093492565132e-01
-3.579033896960208405e-02
1.185162265885816968e+00
1.607917612534794261e+00
-3.937738744701141935e-01
-9.582087515919383014e-01
1.618161218996533535e+00
-4.416727498870678947e-01
2.776582366638722377e-01
1.706167826910013563e+00
7.017848158479292886e-01
-1.699257736687940668e+00
3.183354230881127456e-01
7.149312043177261655e-01
1.058058032054570274e+00
2.176948279595869729e-01
-4.750176067854269268e-01
-5.839749974900868557e-01
7.282576753537783887e-01
-4.745448943197451142e-01
-4.998596819083555021e-01
-7.816755675449960084e-01
2.180337965849955539e-01
4.101207730410111885e-01
2.294492653270434335e-01
-3.848485312714094442e-01
2.817360833409242593e-01
1.596575196142621667e-01
-2.805831158595893382e-01
-7.727735122099994580e-01
-1.596372655842843935e+00
-4.407364520564417409e-01
7.062200793934871879e-01
4.568859454480317384e-01
-7.794702903638357772e-02
-5.368949846882912214e-01
-6.055724238185171693e-01
1.928294011277483233e-01
1.570909751474223404e+00
7.410101696795049486e-01
2.403842281825481833e-02
4.844851932854766230e-01
-5.604444063767011208e-01
2.056681216098724008e+00
7.933083430052242369e-01
-2.582674040207358357e-01
-4.950201267193891086e-01
2.442112983706426488e-01
1.754024475625575619e+00
5.165425806203028936e-01
3.950403655287886284e-01
6.308525641894875691e-02
-4.986705586917433708e-01
-1.660139638781485072e+00
-1.962073733005435860e+00
-3.065433447300086600e-01
9.850721330471436943e-01
5.275833907015747837e-01
3.852289984352948449e-01
8.734698652027361732e-01
-7.296677076374648019e-01
1.276408201579729562e+00
4.486509750653026596e-01
1.932863444647771323e-01
9.584728995458493550e-01
-1.009388781931328083e+00
3.780924798270322573e-01
-7.207324324514645664e-01
-1.732741719376884149e+00
-4.591406273599837884e-01
1.300999524205277647e+00
9.774710668236182842e-01
-5.663885646171563648e-01
-1.044659714468906708e+00
-2.711698537090042604e-01
-6.694142419479716111e-01
-8.139125523799116690e-01
1.447253592752667517e+00
3.236417235125836900e-01
6.428884472397187189e-01
9.121131245221028028e-01
-1.015196099828438392e+00
-2.280770294064307646e-02
-7.481196327445589489e-01
1.615409682664533886e+00
-1.156764085737037151e+00
-2.304939168835699270e+00
-1.739831639051626355e-01
2.467386191351967628e-01
-9.044730798522191417e-01
7.599175755516833775e-01
7.245602789010752165e-02
6.982250822788514943e-01
-1.212739222002641393e+00
-7.596889329365899557e-02
5.787411916620546215e-01
-1.584822766114647383e-02
2.378762177725437965e+00
1.274334230484340358e+00
-3.132525960831943901e-01
-2.380089368375875314e-01
-1.707424529909974620e+00
-2.419700754677460985e-01
6.498891186489881289e-01
2.007911292771851278e-02
-1.806141603730744061e+00
-6.541682515463057568e-01
-7.268055340134975673e-01
1.038889209505712008e-01
1.721689701639175785e-01
1.163309251223311191e+00
3.131914451681132028e-01
1.940085595008893993e+00
-3.549123867195221882e-01
5.441334892944879043e-01
-1.781731166647733955e-01
-7.917103529293747499e-01
-7.280810163955963032e-01
-2.632098856900061401e-01
4.975943096343146133e-01
3.785370180806366114e-01
6.322484033131722247e-01
-1.030744019086304419e+00
-5.934853840784559686e-01
-4.172751102893017955e-02
1.033166985989200537e+00
2.755406538711400732e-01
-6.929279168196968985e-01
-1.905424395645733737e+00
6.304879144220577603e-01
-6.234574548237318270e-01
1.351625468974974598e-01
6.595878526016559773e-01
4.006879886846423933e-01
8.961709885595915415e-01
-8.259201909158419008e-01
-2.632471236926791081e-01
-5.452070314583006699e-02
-1.791585651516343303e+00
-1.342620317649417583e+00
-1.480930804697191183e+00
-4.635260618063388738e-01
1.172243546668639613e+00
-5.670210143072809857e-03
9.871495488674295604e-01
5.800348067420796339e-01
-7.640266101140487098e-01
-9.567946308664130317e-01
1.526909129450827018e+00
-1.041285622827135660e+00
4.326310951970699925e-01
2.448105754710391824e-01
-1.166174158359017499e+00
9.143399379377123992e-01
-8.468125763978564535e-01
-9.549386539559528986e-02
-1.115198961143456291e+00
3.906209472505254438e-02
1.772158421126410976e+00
-2.908051071715584079e+00
8.097281105010897262e-01
-1.701833444660286299e+00
-1.723913950270031248e-01
1.462385397322556013e+00
9.063502444848455797e-01
6.633296463996045667e-01
-1.312752861385963588e+00
6.684927240629006118e-01
6.940894008225683143e-01
-1.099838887308133423e-01
-1.801392264532365450e+00
7.929288744356907115e-01
-4.007613986192512523e-01
-1.794895798088128158e+00
1.081828494192333512e+00
-1.109324477848797619e+00
1.543412811352478542e+00
1.030143325959678391e+00
3.204237855834232707e-01
-1.557166895926397898e-01
-1.187350874913668308e+00
-3.579750514998487620e-01
-1.097664603769484382e+00
4.519064873294503237e-01
-5.189595406624021301e-01
4.247332113802143594e-01
-4.085703012532078682e-01
-2.196644322752566991e-01
5.349858841456989894e-02
-9.997494167865986769e-01
-9.136595811432217662e-01
-8.700568592569107862e-01
-1.367091238452410595e-01
1.466711468624036785e+00
-1.863904296115833845e-02
-3.924314378674093606e-01
1.392238566364688124e+00
7.268188369647358149e-01
-1.046942010978766380e+00
-1.090593723142358140e+00
-9.402087175011055731e-01
4.078573669103165988e-01
6.529540500646375811e-01
-8.204513383281517580e-01
-5.710460455611764824e-02
4.450912159550823866e-01
2.213663459766197050e+00
1.173413620999250728e+00
1.444052923644981723e+00
-9.633037020761773261e-01
4.001607637159881881e-01
3.291036264421199897e-01
1.409555945831060475e+00
-2.074254106534477726e-01
3.498588751959354481e-01
6.672474517648974146e-02
1.286238796333585732e+00
-3.608051501605589739e-01
-4.507743898024829665e-01
5.067316142230016141e-01
-1.317327587582648452e+00
4.549668407358851141e-01
-8.693892441713050312e-01
-9.496211091823962835e-01
4.083134030879925769e-02
1.420006515654516965e+00
-1.164128210758550663e+00
-1.133146666199783326e+00
-2.950282855106785562e-01
1.383188421670857648e+00
-4.993441355202252185e-01
7.274532795664149232e-01
-7.025166602356474818e-03
-2.961898533862664107e-01
-1.306328974696881584e+00
-4.455245673582340915e-01
-7.469174238153234446e-01
-1.335186801111672095e+00
6.664709019499219511e-02
2.286836752706155607e-01
-9.173891408597600883e-01
3.702707205543845359e-01
3.374722446943316800e-01
-4.151596820572993063e-01
6.035867863877804051e-01
9.778997837167071605e-01
5.654704744766195779e-01
4.977651636428801624e-02
1.316273839527551504e+00
-4.037649072902601416e-02
-5.599207831456722850e-01
1.316446875526818161e+00
2.612312538793996719e+00
9.003340740686224253e-01
1.010779457469100695e+00
-5.863651868777054466e-01
9.809961538434917028e-01
8.653021632003389252e-01
-2.509350904331614007e+00
8.290645119463615487e-01
-8.408128486327013373e-01
4.597891358115726579e-01
1.620366572403232119e+00
-8.672606936350060192e-01
5.044644383325155163e-02
-3.123802185780980012e-01
-7.671971734039071400e-01
1.534287609158949128e-01
-2.295317467829989799e-01
-1.311795476595001286e+00
3.672827570595405544e-01
1.407490157033030043e+00
-1.302056401147711373e+00
-9.029897488877629552e-01
4.924987499284865233e-01
-7.368721882259896550e-01
1.301128182288039392e+00
7.794833518725268195e-01
3.385559697569204829e+00
6.096045568541772486e-01
6.500661036402353155e-01
-1.440404703031445077e+00
3.680783345552547658e-02
3.523837323978361996e-02
1.627054472726789103e-01
1.112774631730165220e+00
-6.253204698266597861e-01
-3.900320615831933124e-01
6.568223426442483248e-01
8.619731147107704272e-01
-1.551104139186880282e+00
2.025455381954988088e-02
1.062666570782656361e+00
5.912286117624946380e-01
-3.396463998565045217e-01
4.382033214977449909e-01
1.006380431801058517e+00
-1.187772047689381161e+00
-9.254057237440838080e-01
9.965416565355839085e-01
-1.084908036748654769e+00
1.306530895037564033e+00
7.855827079770501264e-02
9.578580208549358765e-01
5.347987197265758885e-01
-2.506923871939318316e-01
-9.514436816103813421e-02
1.091895723606649105e+00
1.487074498125478816e-01
9.441039114187628478e-02
-2.510189722426464431e+00
8.342084207919980843e-01
1.010235431014145036e+00
1.939688050232899030e+00
9.519806936538005582e-01
-2.581432165655169975e+00
9.025904321331573721e-01
-6.655316782675442244e-01
8.285503946025225552e-01
1.234697304089575065e-01
1.276560753449281771e+00
-1.090669962370271584e+00
-1.059978077144068109e+00
-1.424694697068882743e+00
4.798294907274732735e-01
-8.729121309719847233e-01
5.488809465485766648e-01
-6.832007157923675189e-01
-5.000072941918829450e-01
-1.170244745826903854e+00
1.106559719940170827e-01
-6.156934483906398303e-02
7.408437129308086400e-01
2.041380997048369395e+00
-7.069656360057738897e-01
-8.954080478520740627e-01
-5.373511588138825401e-02
8.051527849514525936e-01
-6.252721809651776708e-01
3.420289558473496583e-01
-2.480052941486684259e-01
-6.964412627727543104e-01
-1.442478031877543199e-01
-1.820557750056741031e-01
3.757667250374201462e-01
-1.354842121572135127e+00
2.718251671141435066e-01
4.404180351658691372e-01
3.855660638079073665e-01
3.682269229415462419e-01
8.605087272041158641e-01
3.142778770182592663e-01
-5.793328030748998714e-01
1.931353242131704784e-01
6.141507401756616247e-01
8.602596731735343560e-01
-1.396746482530271782e+00
7.021667371552905434e-01
-1.664926236512118962e-01
5.548059049990197722e-02
-4.599281614335227752e-01
-9.255651275991627625e-01
1.705980469214144202e-01
-2.206548607353286673e-01
5.715519588067725226e-03
3.673754263571520906e-01
-8.171890416222804543e-01
-7.048677465109706164e-01
1.354204754937947230e+00
9.241756216873224794e-01
6.384091638400461732e-02
9.301134398458554831e-01
-8.646966204919316612e-02
1.801403738940196009e+00
1.339846755090538410e+00
-8.500992721243141315e-01
3.192846810154816861e-01
-7.591645044550854315e-01
-3.063704872745376395e-01
1.210509579400863345e+00
5.791297377244537525e-01
1.791747119771997410e+00
1.177354456301898500e+00
1.171358524650096961e-01
8.151535416621440433e-01
-1.004922720498381050e+00
1.380367128490331607e+00
5.680177153676045920e-01
2.523376696673748643e-01
-3.791368714246964866e-01
1.639770126841988640e+00
1.496188139933386729e+00
1.373581180359458642e+00
6.776909876407837263e-01
-1.111904822209087484e+00
5.596099351645567044e-01
-5.822992307806601486e-01
1.694497218251274084e-01
-2.352173625838563722e-02
1.614516004842948105e+00
-6.206526789645430142e-01
8.979026322564046536e-01
7.977278552025195493e-03
-3.978424843442494030e-01
7.571867924112370973e-01
-1.594747509602994384e+00
-3.067766993664990394e-01
1.448310760917536300e+00
9.136734427953198123e-01
1.272445243915025781e+00
5.410516113563051954e-01
-5.633208457389693447e-01
9.636146742380828911e-01
4.728425031566476644e-01
8.262557170207273094e-01
-4.173148890194928184e-01
-4.685434807365076310e-02
-2.346292817334120873e+00
-1.868719005610360584e-01
-8.780797650317754277e-01
-4.184912738963267320e-02
1.399074977777626350e+00
2.666078230762207180e-01
1.331167543563462063e-01
-2.120669282222822360e-01
-7.476014251649284459e-01
1.746914801116086491e-01
-3.716613951997670973e-01
1.627249100015675465e+00
-6.147483107024185461e-02
2.140380972651613756e-01
2.213618628315380921e+00
3.066487987325204889e-01
2.759899637405610617e-01
-2.193568584812084055e+00
-4.086608703149456900e-01
-4.082985650723458537e-01
-2.252722021247143491e+00
-9.917703978121165109e-01
8.358643721536432869e-01
-5.411512526978701221e-01
-6.709617622542748405e-01
2.101292126521634884e+00
3.581825653615664518e-01
4.461952998958979566e-01
-6.839247669507323435e-01
-1.373873704224553682e+00
-9.802462667335396507e-01
-1.111253651763382644e+00
-4.902563621094407909e-01
6.946637575241942919e-01
-9.437998235521117829e-01
