6.276215517317519366e-01
4.965640836420489590e-01
-1.250150747682374108e+00
-1.955170648172225301e+00
1.447272728202515735e+00
-1.611138335743095507e+00
1.337941563532561329e+00
-5.741103140457636256e-01
-7.063925864723686887e-01
-1.825740988956644273e+00
-1.226424488908195665e+00
1.913525409429335244e+00
1.332687318306607693e+00
1.485988293670070570e+00
2.956201431524107526e-01
2.058702109595549778e+00
-2.040448513755722892e+00
-1.723937726181646868e+00
1.314651956089803342e+00
9.462393583954662457e-01
6.866328430997532817e-02
1.035810399037785240e-01
-2.995964519963306150e-01
6.904145851850155280e-01
2.692442467083740465e-01
4.271089944740935618e-01
-3.434898144603231174e-01
1.927700329687764835e-01
-1.292789309778360041e+00
-1.424071837960376730e+00
1.465806114006621863e+00
-1.280787673575614349e-01
-1.296131543777685247e+00
-1.080056782262673210e+00
-1.037089182386451425e+00
1.498896849047585134e+00
9.769643039133295570e-01
-6.639031316398388283e-01
-1.119752283124442416e+00
-1.404530315308098798e+00
2.452361215659660254e-01
-5.322159072819929726e-01
1.306818479752258066e-01
-1.890351217998616828e+00
2.186253876654610018e+00
-9.620405408514765000e-01
7.347520422450751210e-02
7.703919752339534188e-01
-4.358812738798281128e-01
-5.039779968418375278e-01
7.060333218696037694e-01
1.246837312893197547e+00
4.148491235737027938e-01
-1.065523641266938659e+00
1.195508660092496900e+00
-1.426147560901996014e+00
-1.013220124656116772e+00
2.267413517075239915e-01
5.491399954284985618e-01
9.589967476262161172e-01
1.092896540286671936e+00
-1.174324474701329279e+00
-1.428181648846491791e+00
-4.417135296758127327e-01
-4.088126601170979368e-01
1.641190427045186251e+00
-1.187645926384686357e+00
1.067059217376851610e+00
-6.949661453820518142e-01
1.673079573964299238e-02
-1.291387055460888611e-01
5.660465441279124432e-01
-8.885476648946151190e-01
3.906826643020762102e-01
-4.997059340230063373e-01
-4.180265630293455992e-01
-5.210575542485996747e-01
-1.105304763842825500e+00
1.869581742718366746e+00
-7.909145909959592879e-01
-2.199763348123073003e-01
2.092333854963353001e-01
5.870345694017895521e-01
3.016359125997521984e-01
1.137489801593557781e-01
-3.247425736266650875e-01
1.442765396924002852e+00
1.939533867799243749e+00
4.645298384397152924e-01
1.251326192756162303e+00
-6.579546571849677061e-01
1.044521009065728867e+00
-5.109540812623356576e-01
1.125185396384777547e+00
-9.625198622422270756e-01
8.429819064413965890e-01
1.345608093758470458e+00
-3.210201581439734442e-01
1.199081969228455113e+00
-5.713112994718910764e-01
-6.174298452482264166e-01
7.932436607368940906e-02
-1.887403649926929328e+00
1.058420666032094809e-01
1.604200909648606857e-02
7.871368417613269219e-01
1.955531535684951194e+00
-7.122208101609068809e-01
-1.782792030199929156e+00
-4.459677179489496268e-01
2.985454355698472728e+00
1.838429963473498614e-03
-6.964064926482163020e-01
-9.325666657339661825e-01
-1.057514004361814308e+00
7.927684455001561270e-01
1.352635943201147550e-01
8.443381861202260419e-01
-5.834725753354538247e-01
-2.627179357020883010e+00
1.567094310963504100e-01
-1.216976757642678209e+00
1.315788914151885924e+00
9.088546017507856956e-01
2.837603615125707801e-01
4.404898749338482244e-01
5.250245156905221089e-01
-1.860662783277406085e+00
-6.363596241868419989e-01
1.842469501161073886e+00
6.403831403168228631e-01
-3.583307421712321750e-01
-5.927661290357520013e-02
2.140561408074448946e-01
-9.866599544554850443e-01
-1.175614585795050210e-01
-4.889496445546216985e-01
9.517879988024322557e-01
-1.043084205769385653e+00
8.504280007081432835e-01
6.064619502165603526e-01
2.427828434883597120e-02
-3.230356011902603131e-01
1.598857536610606145e-01
1.188204540927140784e-01
1.573968112405647712e+00
-2.734340288890325099e-01
-7.679377562146453284e-01
-1.159021858431257490e+00
-1.482623420604910702e+00
1.160513330471496296e+00
2.028288632741010122e+00
-8.797333798080360090e-01
-2.484298482461332558e+00
-6.419841212286930832e-01
-1.627248939152232454e+00
2.717030346654818462e+00
-7.904343957011170652e-01
-7.234272972923397327e-02
1.630484441111002214e+00
1.357629427169572134e+00
-5.901085911274600582e-01
-5.232564779120125742e-01
1.695221935010771674e-01
1.444251287138895279e+00
2.419865758150573642e-01
-4.762647346532757897e-01
-1.309204220499210924e+00
3.335782818582240794e-01
7.977132432272502349e-01
-2.331967687159855362e+00
-3.468090163740973342e-01
3.401270544663375084e-01
-1.210860436129197470e+00
6.186444155558717961e-01
2.414507375750872195e-02
-2.119677010725531385e-01
1.504932416611204804e+00
4.472292574266656939e-01
5.773444048547209384e-01
-5.801060476579580349e-01
2.873687658635059594e-01
-8.806593359934389298e-02
8.502536370263391596e-01
-7.633592651165708176e-01
1.396122618535100779e+00
-3.143931421488125322e-01
7.896981932492028178e-02
5.600994866066070221e-01
-1.227548093121468425e-01
1.319518706158321786e+00
3.404000502496609126e-01
-1.018586856519347439e+00
-3.864661567488748006e-01
1.036375738894031562e+00
6.276612060931899828e-01
-5.137741952629637510e-01
6.004060001933250179e-01
-8.167167776572574756e-01
3.675201497859542088e-01
-6.608981414179251335e-01
-2.796004154715701073e-01
8.267270143881404465e-01
-3.811860880828525366e-01
-2.106956291295381256e-01
-4.272225395516652258e-01
9.145646528218475124e-01
-1.093026228279066592e+00
-8.939734379210975690e-02
-1.209141817418010856e+00
7.716392891172921820e-01
3.547040546419899520e-01
6.253047976236614236e-01
-1.553351774423484155e+00
6.529233162322685136e-01
2.099832791919014063e+00
5.909770180595658173e-01
-4.700398243473266069e-01
-2.533131069248664713e-02
-1.199358396837320040e+00
6.716297074082708818e-01
8.974175720913512011e-01
9.381266204957763311e-01
-5.585707926330561734e-02
-7.353703392375666725e-01
1.218978518162013858e+00
4.817464913015834793e-01
-7.506299819943925700e-01
-1.801072163058382580e+00
3.330291790922360051e-01
2.068693619194592603e+00
-1.450074509712775850e+00
-1.121858764230165395e+00
3.381082206002548607e-01
1.405168042632426451e-01
-1.149381037651678872e+00
8.219479412735717361e-01
1.813233871388125973e+00
-2.016912213400197107e+00
5.699150903577485661e-01
5.304031415694523410e-01
-7.729772024548035025e-01
-2.513317519963943480e-01
-4.660301375799155710e-01
-2.469252074977979772e-01
5.670533118279139639e-01
1.328543651758561650e-01
-9.553618127268519444e-01
-2.493659404298207427e+00
-1.116724958830282999e+00
1.391364428041840795e-01
-8.112382938009989886e-01
-2.052463256021273885e+00
-3.540756519917705875e-02
4.423193112399897431e-01
1.164616190055753453e+00
-3.351841970259286652e-01
9.534975742854121528e-01
-2.431574167527407807e-02
-9.625911073826725062e-01
2.092111006356082381e+00
2.921310778956007562e-02
7.245996671623372576e-01
4.735062128216200872e-01
-1.799542542384504173e+00
3.111186184503828556e-01
1.511553378136645698e+00
3.342506359423527695e-01
3.700492730617468973e-01
-3.588569020577227486e-01
-1.826682946531630325e+00
3.642389673403669259e-01
5.693450835129012511e-01
4.060113677208456173e-01
-8.686465157740480558e-01
1.278529806724223894e+00
9.607894302348054527e-01
1.356877244623909684e+00
-3.961784086622460732e-01
1.135465924403276761e+00
1.421198912896555644e+00
3.852826874996537199e-01
1.079843667759345704e+00
-5.205886860033441810e-01
1.270622952371979197e+00
-6.865513733997636869e-01
5.138003277985947470e-01
6.357020481105304377e-01
-4.835152788662432366e-01
3.233570582350301370e-01
8.106563870963521268e-01
-6.168224180766144205e-01
7.726049205029966727e-01
-7.575358362778636390e-02
1.596269985814484649e+00
9.849823062963282416e-02
1.885103748087571640e+00
-1.160956358210873285e+00
-1.590867409603057725e+00
2.460345374840550992e-01
2.107834834083497366e+00
1.513761666666577188e+00
-1.551547245116136897e-01
-2.719422860602994096e-01
-9.144230472855614800e-02
-1.749736629167384150e+00
-1.229480336920221184e-01
8.172175502565158789e-01
-5.002439778608888110e-01
5.462203723101499708e-01
8.507581560448986835e-01
-2.853195080067355560e-01
-9.748411106454687447e-01
2.009881414414268208e-01
-3.600249413993336645e-01
-6.784842075122969607e-02
-1.024009017274472688e+00
-1.027609027026272326e+00
-3.172731916503534477e-01
-3.348288624604706665e-01
5.277871093968794503e-01
-7.789843965688820759e-01
1.333089385884460132e+00
6.745059114842407721e-01
3.654846593839689017e-02
-5.976165978385145072e-01
-1.055695871073408787e+00
3.171516521412934830e-01
-2.376371599277509183e-01
-1.165711848423814229e-01
-6.125650732398614240e-01
-1.567327302340770334e+00
-8.714884154749743539e-01
-1.067166394681011043e+00
-8.417116962073007969e-01
-1.457039395700873596e+00
-6.042757478830663304e-02
1.198334338032476687e+00
4.071202606211277719e-01
-2.083748954489133276e-01
2.448192456257221594e-01
-1.359151120513513389e+00
-7.517406093741881845e-01
1.421803455553299456e+00
-1.272279455642725043e+00
1.286483923764236259e+00
1.696201618270184452e+00
-8.712406931965273049e-01
7.408581845630646256e-01
2.491727944068945488e-01
-1.392716308870697750e+00
-2.031480644349351050e-01
1.899148786386273935e+00
1.336803970023414945e-01
5.943246187563846483e-01
1.301241285626584032e+00
-1.694941651777494895e+00
2.090057292350708806e-01
-7.857220216020279757e-01
1.128719390260015526e-02
1.001199601367385839e+00
2.699364645363054871e-01
-1.372524349212901340e+00
-8.965913482975936821e-01
2.680059342665341293e-01
1.119998651913932886e+00
5.333648140430988782e-01
1.645019997240975695e-01
3.699140375069721598e-01
5.169797163941245444e-01
-1.600481445679108550e+00
-3.575243347626143597e-01
-5.334531927089766201e-01
-1.645814066938216386e-02
2.157577820416172187e+00
-4.807541118007337133e-02
5.723073637553057758e-01
2.104861168815854722e-01
-1.481273683773102479e-01
-1.984091056465150382e-01
1.309105425750473506e+00
1.257974125290265421e+00
2.048359092860005948e-01
-6.252717244643584138e-01
-2.239019428740781359e-01
1.478505825789143024e+00
-5.774059059359314405e-01
2.542281523104349183e+00
-2.142330033763497621e+00
8.993381088440332016e-01
1.306921525727587241e+00
-1.067479399039078070e+00
-1.048719928902003273e+00
1.440395631912464891e+00
-8.497531845568869757e-01
7.506614057458240730e-01
-1.420242844080571221e+00
1.847623984122221397e-01
-3.639873218617706296e-01
1.630770132542706530e-01
-9.723236843935202378e-01
4.136773209754784353e-01
2.770560235125504606e-03
-7.598210633441057626e-02
-7.077530068913671091e-01
5.552227195365014856e-01
9.076390617865738308e-01
7.192888728896513761e-01
-1.424202892411476906e+00
5.989423991062637898e-01
-8.054467386041636034e-01
-1.712807328937451690e+00
6.665253457835433881e-01
-8.777162928062295366e-01
6.283054373492640288e-01
-2.833977926779926992e-01
-9.034354935712793355e-03
8.891640613353031242e-01
1.350042212326778013e-01
-1.195846193428537374e+00
-6.806702683472737325e-01
-1.181726274579280034e-01
-2.647661534748841472e+00
-3.356602720750297419e-01
-2.391071392428885944e-01
7.450414780647139634e-02
-1.648020704200786613e+00
2.165934752448356038e-01
-9.204979014450993535e-01
6.693224070887370258e-01
1.357251311633383972e-02
1.146469166774825243e+00
-6.422475418189564911e-01
-3.291387845192131345e-01
-1.356642931670706487e+00
1.758762391709624284e-01
3.742797681832483181e-01
2.119619398682008438e+00
-1.695004783716078101e-01
1.281642131321910405e+00
5.092423726397005135e-01
-2.050855588129350870e+00
1.895478970248774542e-01
-5.991444052323709885e-02
3.495892024728592534e-02
-5.532411887688621910e-01
2.477303705743010009e-02
1.025334084925556555e+00
1.116852738215245333e+00
-2.299882382215631682e-01
7.793642012272955152e-03
-1.246323897324853158e+00
1.704951115500914771e-01
-7.721890137367585227e-01
-2.682030595435462295e-01
-1.284686397347963194e+00
1.576355623736993838e-01
-4.495773974463677658e-01
-7.669227192227058287e-01
-2.721589756623030709e-01
2.413030780594955238e-01
7.929024917560487662e-01
-3.056179437719609426e-01
-8.191424097733404075e-01
3.338949949232025149e-01
-8.160306155349856816e-01
-3.218717639245755047e-01
-4.800056343254802127e-01
1.195409329674941512e+00
-7.747966966598793803e-01
-8.532921180547440310e-01
1.557714823372524648e+00
3.691534280069063700e-01
-1.486780195039855590e+00
-6.182354722320089480e-02
-1.048145227400371082e-01
5.401013490174457754e-01
6.752013586258358291e-02
1.761669819709057894e+00
1.950158454106394101e+00
3.191987003948660306e-01
5.327533640168428952e-02
3.786374512051226549e-01
-7.988971694557348568e-01
-2.469560531698811179e-01
-6.605891641040739781e-01
-4.179443171458915307e-01
8.894155112754390524e-01
5.037162112957579430e-01
-1.210078643736378190e+00
-1.166904656600113555e+00
-2.160708602616745022e+00
1.992766773428116811e-01
-7.554715380938835656e-01
1.366376778227830213e+00
-4.841016197956989342e-01
9.440666207364911688e-01
-1.674467644811367673e-01
-1.037285144134898252e+00
-7.347853312254524205e-01
-3.024897647819427271e-01
-3.113087409805333494e-01
1.218112012378561149e+00
8.213870841699284775e-02
1.585124719018467188e+00
-9.130393262555639433e-01
-2.437532568745128247e-01
-1.250809030636619301e+00
2.054576525312017399e-01
-2.466441983947380567e-01
1.475069632258696029e+00
8.523511015174494165e-01
4.145822506488941461e-01
-1.133140939719508911e+00
2.030448751816611719e-01
-4.175803795694640885e-01
3.894636824785105977e-01
-1.171407677233468059e+00
-3.688723366635353329e-02
6.027510539857177108e-01
-1.485902715980375266e+00
-1.090956264125291009e+00
1.139923999556225143e+00
-1.608892074171661468e+00
4.650893415229879757e-01
-2.168708445712435928e+00
4.173014409092594135e-01
-2.344638845719411724e-01
1.389270731391981650e+00
3.078331372895697915e-01
7.249806776361833460e-01
1.066763461723200690e+00
-1.676055822646188576e-01
-2.727527094070255620e-01
-6.167269388546021691e-01
-9.218059409337275856e-01
1.310807467441728269e+00
1.194587838357875853e+00
-1.333045467393996313e-02
-2.006292772501876431e+00
1.757354769512299075e+00
-1.440869485159112395e+00
-1.303860305395791341e+00
7.105110907635977524e-01
6.272394344186430493e-01
-8.827028797144476080e-01
1.179041012584143955e+00
1.540500698439308501e-02
-9.274296862986198819e-01
7.617735869917874325e-01
2.792990007194735558e-01
-2.952232002600189281e-02
-5.598166360145900161e-02
-1.819075350638669430e+00
-6.260849386558283713e-01
-1.435493476761544818e+00
-1.163691550314308154e+00
1.309604058982454022e+00
6.842841449887804295e-01
5.697042155581829581e-01
8.211460004795034795e-02
-7.922187867491554958e-02
-4.721735792600270099e-01
-1.603602784488678878e+00
1.197872665023114180e+00
-7.282320168676316152e-01
1.483509500506865697e+00
-3.802624876098609774e-01
-2.038113747226731332e-01
1.731991503661564735e+00
-3.161241539463821582e-02
1.567517490199973884e-01
-2.215622646395332129e-01
1.188346885202955727e+00
2.559342297317552806e-01
1.140427545802637166e+00
2.468890633800923384e-01
1.327211395363729229e+00
6.724272875614091260e-01
1.756769463310239032e-01
5.376265361073502280e-01
1.522453544145473403e-01
8.838280708439461009e-01
1.625931164067769163e+00
-5.265525644452697662e-01
-3.640949582777657234e-01
-1.099647263716462486e+00
-3.219249867152988442e-01
8.152530578005522388e-01
-7.072819303922988077e-01
1.705743480978729257e-02
1.098708230139069375e+00
-1.206870797610740675e+00
-5.593638129687615868e-01
3.752993808356645533e-01
9.704882724545251804e-01
-7.083887762330746130e-01
-2.662759753948184399e-02
-6.264784645389679385e-01
-2.595278774934810517e+00
1.520201941225781894e+00
1.803551473002458660e+00
1.001674890022768105e+00
1.949101145319585005e-01
3.813754257734469633e-01
-4.689510584185234143e-01
-6.783199405586222142e-01
1.491201731103380501e+00
-1.202077234366562219e+00
-8.202404331051837971e-02
1.879973148260561944e+00
3.270107059117023929e-01
-1.439073927762557936e+00
-1.451344046616861005e+00
-1.283139825169316905e+00
5.916255393338458735e-01
-1.206630029013401328e+00
1.551265820852683719e+00
3.001256361218420654e-01
1.442026558994294438e+00
1.476971945252834706e+00
2.050573465126801498e-01
9.657613717082279559e-01
2.473502442363848808e-01
-6.663805426904501061e-01
4.152247163416985520e-01
-1.460712015109645101e+00
4.733302881521392891e-01
1.866542760142038127e+00
2.383868934750888791e+00
2.768011529418178407e-01
6.881853235551337045e-02
-1.125539962880292150e-01
-6.362532720234607142e-01
-2.980336033033033072e-01
-2.020490947023510397e+00
9.440979030593746879e-01
8.281699301712044936e-02
-6.531154431566080776e-01
3.200005527378017578e-01
8.898790674172963877e-01
1.443294067281273962e+00
4.195881457877224663e-01
-1.907557802968739225e+00
-1.929793761812027109e+00
1.095620446779055790e+00
1.043607311220639655e+00
-6.374971105086337797e-01
6.778629068687892500e-01
-3.615216338128558471e-01
-9.463828381454191252e-01
-1.230004026545046480e+00
1.914363753150316316e-01
1.067292958832926741e+00
-2.672725215106274144e-01
-1.551510257106210711e+00
5.999352599658265284e-01
-1.229780355650563761e+00
-1.541908442303581150e+00
3.979200563138561297e-01
-8.604743047630775132e-01
-1.171001157328221298e+00
1.915661354241911529e-01
1.608108523702389769e+00
2.188928311106060232e+00
1.411808145511010415e-01
4.493685986360311246e-01
3.440739606596319167e-01
-7.667061787318431021e-01
-8.708778844779861972e-01
3.121304743892562850e-01
1.374913535339143955e+00
-9.979871792308200318e-01
-1.648934856506673485e+00
1.115253739700779345e+00
-1.303802038856530787e-01
-5.091610582027914500e-01
4.192446506791205896e-01
-1.253100522247882209e-01
-1.484148688376439040e-01
7.782717224437211145e-01
-1.183810478228985774e+00
-1.632508401427202882e-01
1.110343202716258748e+00
1.098847463570182592e+00
-1.074836070901732832e+00
-5.482005823684342749e-01
-4.300512533253409431e-01
8.805189653157539931e-02
1.105995291184574070e+00
-1.857090822285330622e+00
1.958744167564937036e-02
-4.564948479495140599e-01
1.515281629123432117e+00
2.347607900210937792e+00
1.701198468985946769e-03
-9.625267463091226050e-01
9.788478921814666167e-01
1.218743012720036267e+00
-1.651158963530817259e+00
1.306749327535603189e-01
6.879112227678689795e-01
-2.225692652584322639e-01
-1.184113313115451538e+00
4.181308871147386141e-01
-1.489786134405928664e+00
8.301833331151682593e-02
2.751346717568068367e-01
-3.681324839111740355e-01
-4.489498259688621262e-01
-3.345439804094087477e-01
1.969182648113959822e+00
6.778560641947058985e-01
-7.434852856870221016e-01
-7.015600037996668759e-01
-1.831567069734265418e+00
6.869943685765788066e-01
1.423100521353480641e+00
1.580319908164437903e+00
-1.622035564814761521e+00
9.047651329110899532e-01
-5.852258394037336275e-01
-6.939345276979701493e-01
-1.146466887813679447e+00
-2.190834183501585708e-01
5.846703275391317289e-01
1.441385114845211146e-01
-1.698464859635554491e-01
-1.600360504299773945e+00
-9.398608122904497097e-01
6.084652984566323308e-01
7.266166392792077211e-01
8.480164384784872889e-01
1.020650931973626996e+00
-1.100540085110830679e+00
-1.276941234529732849e+00
1.745115758124875738e+00
-1.921376722787584423e-01
-2.898320134095160761e+00
-9.178762694600763883e-01
1.200917826302947189e+00
-4.025219923876920125e-02
-1.280595093200732837e+00
-1.043898528127138015e+00
-3.788809964295826727e-01
-7.026000965951491040e-01
-6.946163161082336002e-01
-5.793922564348642501e-01
3.714772991674442082e-01
-3.275156875318368521e-01
3.373130770810406354e-01
-1.099066672224571661e+00
8.839717131272989414e-01
-1.510787691476111583e+00
-1.836420845840663230e+00
-8.811156024808133314e-01
1.074869826005463214e+00
7.810107115926008536e-02
2.684836538479676182e+00
-1.103601873811527320e-03
-1.585652347715744426e-01
-1.527830961636892360e-01
3.321248186831763927e-01
5.121031890696029487e-01
1.404207387121264139e+00
-4.079553330931927624e-01
2.543192365084098738e-01
1.680739728935340405e-01
-2.092872058792171197e-01
2.673268654287630497e-01
1.100182055969933098e-01
8.191325365527856173e-01
-4.884578318925067442e-01
-4.077652436420512450e-01
1.985040932194070268e-02
1.405479361187420118e+00
-1.745425078371191374e-01
1.334548897212770369e+00
5.488392173506796007e-02
-5.894632419997266615e-01
1.575650515787982084e-02
1.204261169924459418e+00
-2.717836103317433083e-01
-1.255539390196055871e+00
-8.473020490400836602e-01
-9.114843123010640813e-01
-5.315088843869540947e-01
-1.732080668489291320e+00
-1.655259661972246832e+00
-6.335940548716558762e-01
7.399911789657288574e-01
5.485042614737054012e-02
-2.191866877455729501e+00
-1.053327223587415151e+00
1.182392217378888111e+00
-1.062114898253113005e+00
2.516508363437968576e+00
-2.717667868155125621e+00
-1.440780429924242712e-01
-6.826141226433849463e-01
1.095320284154759127e+00
7.757786784186030404e-01
3.069962950941378832e+00
-4.866842770374569804e-01
8.816459757945359632e-01
-7.513632947149312402e-01
1.240797255090058338e+00
-5.760488934246559278e-01
1.457801615174809218e+00
4.425100294985370719e-01
6.766787726103125067e-01
-9.434961411216770122e-01
1.611200625831408662e+00
2.188257168250842266e+00
-1.411437288204413276e+00
7.030589643762081842e-01
1.429177818089524488e+00
-1.975132057892865722e+00
1.813457631037984907e-01
1.455423722868338210e+00
5.659951463874096644e-01
7.473522060999379102e-01
-1.562955055830770323e+00
1.580329151009537414e-01
-3.642651330673729593e-01
-1.279434825315879598e+00
1.504181413528672406e+00
4.320233813070353812e-01
9.654677771852822055e-01
8.426592635601396486e-01
-3.783577454044231847e-01
-1.126631986140524955e+00
-5.082428500521617432e-01
-2.599254525343528965e-01
-2.765860604435747550e-01
6.099617711287229627e-01
7.679787582605509533e-01
-2.385228084164468854e+00
-2.164174862467636573e-01
1.329450033240363593e+00
1.650003196731799626e+00
9.854556982513694718e-01
-1.961272002041154205e-01
-9.951723604925742928e-01
-5.135423773720819707e-01
3.988668138410368380e-01
-6.609671625825587482e-02
-1.287397285116976375e+00
-7.698422266432067840e-01
3.920138902512028123e-01
-2.833703065364659435e-01
-8.652838550393973094e-01
-5.145324578845897889e-01
1.780185514874363384e-01
1.894514167963268436e+00
-2.446900229729974049e-02
1.033310789975369071e+00
-2.053207347677420969e-01
5.394126779230521418e-01
-5.606886782546768311e-01
-1.616843360975439570e+00
-2.157510777670805235e-01
1.444698475464099852e-01
3.754977984948645875e-01
-8.754558015111791880e-01
-3.648169957775251326e-01
-2.225623909695883640e+00
6.373091860703018474e-01
3.021775372870408871e-01
-7.322306985652372591e-01
5.063815562337704579e-01
5.642928168859140392e-01
-4.655971452579751313e-01
-3.088083203046128045e-01
-2.112482666093647501e-02
-1.257536922404711988e-01
-1.300993210372992648e-01
-1.444987650364843113e+00
-2.690564071260501677e-01
-3.001076593071556609e-01
5.306261326758846542e-01
-2.374119456916501114e-01
-9.947214321750121879e-01
1.164586200091040968e+00
-1.973537826475315393e+00
1.681738680783631645e+00
2.442878017238756805e-01
-1.814033262637511523e+00
-9.372707188372524367e-01
5.360974869733321074e-02
7.188687795588916130e-01
-1.832297586426989922e+00
2.408994090628737983e-01
-9.900499794576015367e-01
-1.044275969024145018e-01
1.390090702703189240e+00
-8.178127060181469288e-01
-1.474565794004879526e+00
-7.769544068604081755e-01
1.505046541900621204e-01
1.472552295985166904e+00
-1.102824181548091920e+00
2.028956089806099428e+00
-1.154085063361478980e+00
7.612694887642615926e-01
3.611463699396975646e-01
-3.047110932312649956e-01
4.576142963290712878e-02
4.786996303914605733e-01
4.746859755491951716e-01
-3.646466488252921856e-01
-1.701781316942982292e+00
1.086765926964986084e+00
3.914358717447452007e-01
-2.079061929299874656e-02
1.197742423213541629e+00
-1.220049888743867939e-01
-2.831948963609040582e-01
-1.072329714553596380e+00
-1.051752397690603136e+00
1.105881063787136798e+00
-1.440668161819605997e+00
-6.877898994046216519e-02
-5.136463354166913575e-01
1.187374365720405223e+00
3.234958457766171636e-01
-9.208315191841249803e-01
-1.477947077441492674e-01
1.248699528801534786e+00
2.971953554093799063e-02
4.378233661758159645e-01
2.500185562300782371e-01
-3.802372890173656206e+00
4.314688673171334643e-01
2.655212114958672709e-01
-4.028762740562437661e-01
-1.133353239546073032e+00
9.678273284418554834e-01
-1.222258238400584784e-01
-1.542783684527649912e-01
1.936759538115247758e-01
-2.027001672103475038e-01
-7.967858385140366151e-01
-3.808358623002051080e-01
1.127989506084834392e+00
-2.030443509844310213e-01
2.028629522464106272e-01
8.150123396039129497e-01
7.264328615193283989e-01
3.120538167406790020e-01
-7.566487854885954878e-01
-1.950962497676568264e+00
4.226901666736110896e-01
3.848599330412994513e-01
3.315570124263654272e-01
-1.061436588517951307e+00
1.140215400592373252e+00
-6.147093996280221795e-01
-1.727656344869043237e-01
-8.159630067889960259e-01
-6.430238851666482576e-03
1.081546890011706008e+00
-7.109343469709387131e-01
-1.567993948601434928e+00
-4.553932942527682548e-01
8.229678337901722429e-01
-5.947051709930638586e-01
-4.647968029671167289e-01
-4.528375629527674473e-01
-1.018536654193104907e+00
-7.932638990505412879e-01
1.103508983549798872e+00
3.273171324365635182e-01
-1.084937986533704102e+00
1.933059105831469726e-01
-9.175199069796469153e-01
1.802624304571317226e-01
6.694459087519326612e-01
1.340761754696013219e-01
-3.185179826542673398e-01
5.258818520779718897e-01
1.591392841708109129e+00
5.270844118421489366e-01
1.180323955275507819e+00
-1.107069231590197989e+00
2.999175407270780469e-01
-2.118539924787484097e+00
5.788918291439049124e-01
-9.640648165636717115e-01
1.356386963547945475e-02
1.116775026619363897e+00
1.466155657566281301e+00
-4.128215433721531546e-01
9.899305101140717378e-01
1.423666592051570368e-01
6.968424612140283747e-01
5.084721783748212820e-01
-4.742260915625211293e-02
-1.394148792805905535e+00
-4.512429511680694505e-01
