-1.380249962729792612e-01
7.195048725134801648e-01
-3.012024950856656003e-01
-5.479145917267269628e-01
3.832861997203524940e-01
-5.930971145529090327e-01
-3.541091484926249811e-01
5.977034676914406708e-01
6.694476182974711254e-01
-1.597422489596756270e-02
2.369731673307857445e-01
1.067663678578830488e+00
4.030377919477641235e-01
-1.175658805464935008e-01
4.254266628306210829e-01
2.212330558073625775e-01
2.629124320775029777e-01
-8.846814038923402068e-02
6.079280917467143608e-01
-1.499299809439480935e+00
-1.655224636340743016e+00
-1.263386359202836484e+00
-8.691942864749259146e-01
9.278569112751332976e-03
-4.372026656080595375e-01
-5.975158477718701677e-01
-6.281285771348376068e-01
-6.033691043512751095e-01
-5.175459612528322539e-01
-3.492596547682677577e-01
3.258618104886200351e-02
7.693083435854430885e-02
6.230402927446679895e-01
6.612145277049363834e-01
3.434600781154606430e-01
2.804362137322323090e+00
2.484105366185382080e-01
4.605967138219683732e-01
1.498875858302881336e-01
-1.084123708525853047e+00
-7.682059105100583762e-01
5.468492351861710121e-01
1.653031803614213313e+00
-1.220498712963486859e-01
-2.002089025200298966e+00
7.363672428859444619e-01
6.518074314371724576e-01
8.965356553004323326e-01
-2.183337703055342249e+00
2.072591325877959800e+00
-8.872884212605810506e-01
1.056796263427819849e+00
1.535893288649032407e+00
-3.581361344260780566e-01
9.457980186552699120e-01
2.614144293637152283e-01
-8.036033875630371748e-01
2.009075462289239944e+00
1.435117026903697690e+00
-1.071150030437193035e+00
-1.266544052351255667e+00
7.065343843220365239e-01
-3.080613696644277644e-01
7.583204755459199697e-01
-2.021638361028684494e-01
4.850470152621342845e-01
-5.852483428099579665e-01
2.727314419336811513e-01
-2.455978417992339402e+00
-2.751028231008419755e+00
6.174438140789005880e-01
7.070702426156433296e-01
7.687257775777763813e-01
1.215713142741262187e+00
-8.663577910081516897e-01
-4.840362926744429806e-01
3.518416452213798395e-01
-4.872157496528443238e-02
1.255400953247322260e+00
1.566796687224609075e+00
-1.588348841443872228e+00
1.554847485565433729e+00
1.999507723358048272e-01
-7.900815167569502639e-01
8.201142788505395576e-01
2.317133647465555168e-01
-8.375624428644917741e-02
-3.330482561022390930e-01
-1.675895316741057850e-01
1.714988231911823924e+00
-3.532430481432788372e-01
-1.149789421118190269e-01
1.599719702238040719e+00
3.108727515421443877e-01
-5.532616758812877178e-01
9.594492640642529602e-02
-5.273291528032089115e-01
1.114979164197043904e+00
-1.250173642428264786e+00
-3.830310665117123703e-01
