1.529794832875029931e+00
1.183205319081926526e-01
-4.283705932476578049e-01
4.017574018579255779e-01
-6.549517388844610100e-01
1.200963750328029711e+00
-7.619035600365443583e-01
9.160897411054191863e-02
-1.735606111429636444e-01
1.416044588943818017e+00
5.459781792271235501e-01
-8.510465471702053364e-01
1.296430513118290717e+00
-3.335932487360331877e-01
-2.985563204055705633e-01
-4.817458042498270476e-01
-4.098623874421725849e-02
-1.393215903531360988e-01
-3.970733211559451803e-01
-1.297806293314003878e-01
-2.265451650126775185e+00
-2.687010372840752948e-01
-3.105917531178543634e-01
-2.170495311379762871e-01
-3.693647836824696662e-01
1.403013969185505916e+00
4.734179426108572897e-02
1.875301414465172511e+00
-1.056118782784662091e+00
-6.698027656688134712e-01
8.573564553755772671e-03
2.309220025165350243e-01
1.177010996574755219e-01
3.612119059196133852e-02
-2.183552785156251674e-01
-6.104763525542546976e-01
8.008648503284007125e-01
1.651842736859505889e+00
1.819524737906495604e+00
9.625859163837597876e-01
5.002285513078998935e-01
-1.179200632037998853e+00
-6.644963980642429324e-02
1.372987432279033360e-01
-1.947035316397983384e-01
-2.686687731299010062e-01
-1.446614000120475252e-01
9.058882803527195104e-01
-2.134253190729751282e+00
1.481880360901640659e-01
1.485979804210507682e+00
-2.906141376416962463e-01
-3.409564175841958526e-03
-1.286695738783993459e+00
-2.032465405914807288e-01
-1.143219617208558914e+00
-1.647192551623395396e+00
-5.227587246729570314e-01
1.199446126632665477e+00
-6.819942966303268461e-01
1.070822150451428811e+00
-3.098903907129725854e-01
-3.465577794025161418e-01
1.093474196385844754e+00
-7.465757619510042797e-01
2.199111456794780317e-01
-3.979170933145541045e-01
6.296111049158157336e-01
7.766463983146493222e-02
-1.312871118371023438e-01
-1.120510874393343959e-01
-4.333460342614087746e-01
-9.140280299507180795e-01
-3.291090034971180106e-02
-2.841204151348441509e-01
-1.071396732492886805e+00
4.708684783065310575e-01
6.081011144098293908e-01
-2.111034883146355234e+00
-2.373528204208544157e+00
-1.450032661743929641e-01
-6.846306103615483751e-01
3.403151394687756737e-01
3.700547922494275555e-01
-1.499016186448281163e+00
-9.154508202997870825e-01
1.277651934557392011e+00
1.282159050517813093e+00
-4.821648155322528218e-01
3.736208321902889651e-01
1.869595945051629737e-01
3.042800575832276255e-01
1.138997714592651311e+00
2.184853151014182551e-02
-1.674089807741552471e+00
-9.498145017482810815e-01
7.314649001509828663e-01
-1.617304477384391426e+00
-3.054249376950677903e-03
-7.149612272293585091e-01
