4.847978590651862985e-01
-1.264475356623004698e+00
3.921771567526296520e-01
-1.591928844885353689e+00
-8.474035374154416100e-01
-1.925971196778584860e+00
-3.345671322867465047e-01
-2.026482214339708321e+00
2.054561749035726526e-01
1.250239171748595834e-01
-2.403522203189778217e-01
-4.689506199289253385e-01
-1.408480380548761679e-01
2.490649097879740481e-01
8.071329397078033097e-01
-1.738785376404937022e+00
-9.171807167855768883e-01
-1.034883939829883553e-01
6.480188475515218371e-01
1.926659575415624603e+00
-1.251680040325112708e+00
4.927808023791448999e-01
4.838780977894914237e-01
-1.714944531184812826e+00
-5.858129016026039082e-01
4.387110091630440079e-01
2.145646910593060230e+00
9.899368889954883732e-01
2.599197483145581522e+00
1.466022904930950554e+00
-1.020154068357620458e+00
1.246555119201087913e-01
2.727213812408811958e-02
9.282939161365680869e-01
7.824716444871664400e-01
-4.710341025825500183e-01
4.884057267569090754e-01
1.122139243863766511e+00
2.020738142961938877e+00
1.591999933864319594e+00
-1.216680665606623579e+00
4.271005298838993491e-01
-8.094788615416497191e-01
-1.363833253110426635e-01
1.039719592891798161e+00
1.832929219585881786e-01
3.692236996824834611e-02
1.871724191136220003e-02
8.008220567650183863e-01
7.026367293332649311e-01
-1.422987825851866617e-01
1.503846215655997964e+00
5.202258487823104849e-01
5.538923834433688853e-01
-9.296756876227174615e-01
-1.921544366220192313e+00
9.659483549148947801e-02
-8.321214908313695480e-01
1.687970330735792668e-01
-4.592231455575638277e-01
-4.479708431023517456e-01
-2.350693910805914388e-01
-6.536145670669175900e-02
5.396137889693691791e-01
1.254591821837239385e+00
1.017362541954901500e+00
-5.681702237942504174e-01
-1.831797562071860730e-01
6.236978978311722432e-01
-1.934462979616592346e-02
-5.154829497784505637e-02
1.933009976572148236e+00
-1.467189330129261560e+00
-2.451773716824246982e-02
-2.309875307130301536e+00
-2.253093834799074546e+00
-1.238616761398107391e+00
4.639809609751265329e-01
7.244568480418203116e-01
1.889008531097013499e+00
7.680023154678105035e-01
-8.819144018636984050e-01
8.284717726863934928e-01
8.616916014795075185e-01
8.384439007183042136e-02
1.337350347020579644e+00
-1.239779256280068021e+00
2.537991177546036425e+00
-1.091018935081155883e+00
-8.684895916308741359e-01
1.356859988179892895e-01
-1.080198552558711222e+00
9.181339011789948490e-01
2.296813746830579372e+00
6.498291736673475483e-02
-3.359431773701040402e-01
2.094989988250436586e+00
-5.407974223431348537e-02
-4.418094862768842113e-01
-1.166653268133132970e+00
